digraph Tree {
node [shape=box, style="filled", color="black", fontname="helvetica"] ;
edge [fontname="helvetica"] ;
0 [label="marital_status_Married-civ-spouse <= 0.5\ngini = 0.364\nsamples = 100.0%\nvalue = [0.24, 0.76]\nclass = low", fillcolor="#77bced"] ;
1 [label="capital_gain <= 7073.5\ngini = 0.12\nsamples = 54.1%\nvalue = [0.064, 0.936]\nclass = low", fillcolor="#47a4e7"] ;
0 -> 1 [labeldistance=2.5, labelangle=45, headlabel="True"] ;
2 [label="education_num <= 13.5\ngini = 0.091\nsamples = 53.2%\nvalue = [0.048, 0.952]\nclass = low", fillcolor="#43a2e6"] ;
1 -> 2 ;
3 [label="gini = 0.07\nsamples = 50.3%\nvalue = [0.036, 0.964]\nclass = low", fillcolor="#40a1e6"] ;
2 -> 3 ;
4 [label="gini = 0.378\nsamples = 2.8%\nvalue = [0.253, 0.747]\nclass = low", fillcolor="#7cbeee"] ;
2 -> 4 ;
5 [label="age <= 20.5\ngini = 0.055\nsamples = 0.9%\nvalue = [0.972, 0.028]\nclass = high", fillcolor="#e6853f"] ;
1 -> 5 ;
6 [label="gini = 0.375\nsamples = 0.0%\nvalue = [0.25, 0.75]\nclass = low", fillcolor="#7bbeee"] ;
5 -> 6 ;
7 [label="gini = 0.037\nsamples = 0.9%\nvalue = [0.981, 0.019]\nclass = high", fillcolor="#e6833d"] ;
5 -> 7 ;
8 [label="education_num <= 12.5\ngini = 0.494\nsamples = 45.9%\nvalue = [0.447, 0.553]\nclass = low", fillcolor="#d9ecfa"] ;
0 -> 8 [labeldistance=2.5, labelangle=-45, headlabel="False"] ;
9 [label="capital_gain <= 5095.5\ngini = 0.444\nsamples = 32.5%\nvalue = [0.333, 0.667]\nclass = low", fillcolor="#9ccef2"] ;
8 -> 9 ;
10 [label="gini = 0.419\nsamples = 30.8%\nvalue = [0.299, 0.701]\nclass = low", fillcolor="#8dc7f0"] ;
9 -> 10 ;
11 [label="gini = 0.039\nsamples = 1.6%\nvalue = [0.98, 0.02]\nclass = high", fillcolor="#e6843d"] ;
9 -> 11 ;
12 [label="capital_gain <= 5095.5\ngini = 0.402\nsamples = 13.5%\nvalue = [0.721, 0.279]\nclass = high", fillcolor="#efb285"] ;
8 -> 12 ;
13 [label="gini = 0.441\nsamples = 11.4%\nvalue = [0.672, 0.328]\nclass = high", fillcolor="#f2bf9a"] ;
12 -> 13 ;
14 [label="gini = 0.006\nsamples = 2.0%\nvalue = [0.997, 0.003]\nclass = high", fillcolor="#e5813a"] ;
12 -> 14 ;
}